svm_type c_svc
kernel_type rbf
gamma 1.0
nr_class 4
total_sv 19
rho 0.3679477231378345 0.5873683000732901 0.5002399662796625 0.3650429328437992 0.18637131344774366 -0.1459839006686392
label 1 2 3 4
probA -1.8727096071749114 -2.7046148744405656 -2.774878694172563 -2.4618837500292177 -2.5881347136566686 -2.9352958510369733
probB 0.5777088365391613 -0.204428619929166 0.08994304596204541 -0.13766184951360008 -0.031888444028291975 -0.22159183929363696
nr_sv 2 4 7 6
SV
0.656517640415225 0.7204877330943378 0.6773179945157347 2:0.0 7:0.0 4:0.0 5:0.0 6:0.0 9:0.0 3:0.0 8:0.0 1:1.0 
0.9040261080141418 0.9701122842819326 0.9905248654734058 2:0.0 7:0.0 4:0.0 5:0.0 6:0.0 9:0.0 3:0.0 8:0.0 1:1.0 
-0.2150026176030632 0.756434240985022 0.4996886900796374 2:1.0 7:0.0 4:0.0 5:0.0 6:0.0 9:0.0 3:1.0 8:0.0 1:0.0 
-0.0 0.10572137925855409 0.22081106065995512 2:1.0 7:0.0 4:0.0 5:0.0 6:0.0 9:0.0 3:0.0 8:0.0 1:0.0 
-0.6727705654131518 1.0 1.0 2:0.0 7:0.0 4:0.0 5:0.0 6:0.0 9:0.0 3:1.0 8:0.0 1:0.0 
-0.6727705654131518 1.0 0.9047432082648776 2:1.0 7:0.0 4:0.0 5:0.0 6:0.0 9:0.0 3:0.0 8:0.0 1:0.0 
-0.22063125348067786 -0.33835599311293674 0.4560336537770386 2:0.0 7:0.0 4:0.0 5:1.0 6:1.0 9:0.0 3:1.0 8:0.0 1:0.0 
-0.2209727911621477 -0.33868152975305166 0.4561562395155429 2:0.0 7:0.0 4:1.0 5:0.0 6:1.0 9:0.0 3:1.0 8:0.0 1:0.0 
-0.49480507444471106 -0.5580048312128517 0.8503130156662532 2:0.0 7:0.0 4:0.0 5:0.0 6:1.0 9:0.0 3:0.0 8:0.0 1:0.0 
-0.12215894162374637 -0.6602199624429659 0.2546152302788417 2:0.0 7:0.0 4:0.0 5:0.0 6:1.0 9:0.0 3:1.0 8:0.0 1:0.0 
-0.38571795637913336 -0.582902480558086 0.7354332958941693 2:0.0 7:0.0 4:1.0 5:1.0 6:0.0 9:0.0 3:0.0 8:0.0 1:0.0 
-0.12367330736907259 -0.19422225582588812 0.27909638181610885 2:0.0 7:0.0 4:1.0 5:1.0 6:1.0 9:0.0 3:0.0 8:0.0 1:0.0 
-0.12264069291678152 -0.1897685673377959 0.25429631813262504 2:0.0 7:0.0 4:1.0 5:1.0 6:1.0 9:0.0 3:1.0 8:0.0 1:0.0 
-0.2673044242459522 -0.43479886262813333 -0.6118647433060462 2:0.0 7:1.0 4:0.0 5:0.0 6:0.0 9:1.0 3:0.0 8:1.0 1:0.0 
-0.2665775640545575 -0.43503143327914684 -0.6128138410583908 2:0.0 7:0.0 4:0.0 5:0.0 6:0.0 9:1.0 3:0.0 8:1.0 1:0.0 
-0.0 -0.0 -0.028234958631087118 2:0.0 7:1.0 4:0.0 5:0.0 6:0.0 9:0.0 3:0.0 8:0.0 1:0.0 
-0.590689228542794 -0.9067638078922875 -0.9975481862314927 2:0.0 7:1.0 4:0.0 5:0.0 6:0.0 9:0.0 3:0.0 8:0.0 1:0.0 
-0.05024923775489229 -0.1013018071563374 -0.23535098702634688 2:0.0 7:1.0 4:0.0 5:0.0 6:0.0 9:0.0 3:0.0 8:1.0 1:0.0 
-0.4930224053909444 -0.7473470480485651 -0.8001314188272158 2:0.0 7:0.0 4:0.0 5:0.0 6:0.0 9:0.0 3:0.0 8:1.0 1:0.0 
